 -6.67129238e-002 -5.00496165e-002 -6.51762223e-002 7.36479992e-003 7.12938088e-002 -9.67890545e-002 -1.24732384e-001 -5.51820109e-002 -1.03533666e-001 -8.80390928e-002 -2.02644041e-003 -1.17292687e-001 -7.64454811e-002 -1.68818753e-002 -6.07260863e-003 7.12739256e-002 -1.18000140e-001 -3.28892760e-002 -1.04675161e-001 -9.73750926e-002 -1.22886925e-001 -6.31461194e-002 -1.97036310e-002 -3.98924957e-002 9.26225612e-002 -2.25983198e-002 -8.69537498e-002 -5.41535928e-002 1.07017363e-002 -1.20730210e-002 9.66218253e-002 -1.55921825e-002 -1.09111023e-001 1.01079276e-001 9.93305518e-002 7.71527642e-002 -1.17471581e-001 5.40087479e-002 -6.98199657e-002 -5.86184873e-002 3.97211644e-002 6.19039517e-002 2.34183188e-002 7.71513201e-002 3.01485461e-002 -1.32077880e-001 1.00494066e-001 8.10096781e-002 -9.42274354e-002 -7.52962958e-002 7.66191877e-002 -5.42893530e-002 6.47803294e-002 9.15449017e-002 7.97094474e-002 -2.55178549e-002 1.02447629e-001 7.25016462e-002 6.10015928e-003 9.31522223e-002 -1.04600179e-001 9.11583188e-002 5.31234373e-003 2.90659158e-002 8.71196218e-002 -7.77680871e-002 8.74748578e-002 -5.47995364e-002 1.11561650e-001 -6.71557307e-002 8.13397542e-002 6.01856944e-002 5.05509182e-002 -1.13541532e-001 6.83161948e-002 -1.17598576e-001 3.28185484e-002 -1.17486584e-001 -9.95817789e-002 2.94867640e-003 1.21843755e-002
 -1.60153880e-001 -1.11189817e-002 1.05978510e-001 2.72213774e-002 -4.88076449e-002 -4.67929708e-002 -2.79753670e-002 4.27031409e-002 -7.70499359e-002 5.20519012e-002 7.21060479e-002 2.43743378e-002 2.20101021e-002 -2.11701513e-002 -1.47231434e-001 -2.79783946e-003 6.43345086e-002 -7.87400089e-002 4.63876718e-002 9.72690205e-003 -6.39916385e-002 7.16823750e-002 -1.97264154e-004 -1.14264512e-001 -2.57631332e-002 6.64498075e-002 7.15638563e-002 -5.45719887e-002 -1.11935743e-001 -1.25705258e-001 6.29988838e-002 7.66769436e-002 1.44478664e-002 -4.31769520e-002 1.93522395e-002 -1.07960665e-001 5.64989171e-002 5.14078133e-002 -5.61614138e-003 -3.95767521e-002 -9.13642397e-002 -9.46074110e-002 -4.38132650e-002 6.12127159e-003 3.67771185e-002 6.30808442e-002 -7.60957094e-003 -2.35772678e-002 3.01560586e-002 6.43940017e-002 -4.31326072e-003 -6.07411966e-002 -4.74529964e-003 7.19228019e-002 -2.31099662e-002 -5.98101469e-002 4.10047783e-002 -1.02184879e-001 1.22875598e-001 -5.15729473e-003 9.89250893e-002 1.92717589e-002 -3.19549337e-002 -4.92251970e-002 4.48459730e-002 7.73703890e-002 3.23560992e-002 1.33025311e-003 -8.30139900e-002 -1.65516472e-002 -4.58691407e-002 -4.69636892e-002 -9.47928178e-002 -6.59269861e-002 5.09738337e-002 5.51620615e-002 1.59556563e-002 4.78800677e-002 -1.12140687e-001 3.67377227e-002 -1.16051539e-001
 -9.17065038e-002 8.28506409e-002 7.45814883e-002 -1.03692251e-001 -8.25406240e-002 -7.21008653e-002 3.32023129e-002 4.76039600e-002 -2.11359005e-002 9.51723858e-002 5.55845757e-002 -1.78245381e-002 9.71050780e-002 9.12586461e-002 -9.56890397e-002 -8.62184352e-003 -2.20026874e-002 8.89613934e-002 1.60894554e-003 5.77946005e-002 -3.61758730e-002 -1.01371351e-001 -6.62976622e-002 -8.10976930e-003 -9.08227312e-002 -1.19468852e-001 -4.42135440e-002 -3.64877107e-002 1.10104010e-001 6.59112579e-003 6.46873686e-003 -4.15840101e-002 -1.08182890e-001 2.14214620e-002 -1.41517961e-002 2.06098026e-003 2.11395426e-002 -9.57303250e-002 -7.39029334e-002 -1.58799146e-002 8.97512550e-002 6.96953530e-002 8.80096602e-002 -1.13126731e-001 7.10402309e-002 5.38918787e-002 -5.46007622e-002 -4.17227062e-002 -1.14992134e-001 -2.08359011e-002 9.85189106e-002 -1.03153090e-002 -6.53285606e-002 1.84237341e-003 -9.68211783e-002 -8.87468917e-002 7.95073744e-002 -1.03223849e-001 -1.02301103e-001 1.74536694e-003 9.04526082e-002 -1.65356167e-002 9.08066522e-002 -9.11437191e-002 5.46884450e-002 -6.10298254e-002 8.69759340e-002 4.88413003e-002 -1.86457260e-002 1.17516133e-001 1.06987703e-001 -3.70474636e-002 9.55719143e-002 -9.92763409e-002 -7.20044837e-002 -4.78992629e-002 -4.41578557e-002 -1.75435811e-002 -4.04632408e-002 4.76765708e-002 -7.94788592e-002
