 -1.79551141e-001 2.94541878e-002 5.54614748e-002 -7.17655688e-002 -1.89403519e-001 -1.81217906e-001 1.74290117e-001 -9.98751154e-003 1.00533253e-001 1.17066949e-003 2.29243682e-001 7.42207502e-001 3.62817154e-002 -1.81631228e-001 1.43428670e-002 -3.38363220e-001 5.12801091e-001 -3.16308527e-001 -1.76170376e-001 1.39999194e-003 1.04501340e-001 4.31171675e-001 -2.84345069e-002 -1.71490008e-001 -2.14254319e-002 5.60371564e-002 9.72675705e-002 -1.43395895e-001 -1.86997143e-001 1.86742759e-002 -1.09188532e-001 -1.07859796e-001 -6.46180518e-002 -2.22350072e-002 -1.76229574e-001 -1.39038514e-001 -5.94633878e-002 -1.63535176e-002 -2.11176370e-001 -1.35400758e-002 -4.80018833e-002 -1.73185919e-001 -3.21521810e-002 6.13229615e-002 -2.26519098e-003 -1.16600384e-001 -1.00806795e-001 -8.99626336e-002 3.61671243e-002 -1.50725510e-001 -1.83467516e-001
 1.76367812e-001 7.14632064e-002 -1.31968687e-002 -1.68691771e-002 1.16526631e-001 2.39377903e-003 -4.82245697e-001 1.58821946e-001 -2.31825574e-001 8.94809157e-002 -2.09178190e-001 -1.21959017e+000 -3.59906693e-002 1.49858895e-001 1.18746493e-001 6.83810764e-001 -7.56360711e-001 9.49672218e-001 1.24881210e-001 -2.27741456e-002 1.09051362e-002 -7.19495656e-001 2.07653621e-001 1.97289977e-001 -1.64650636e-002 -1.58944513e-002 3.81716625e-002 1.70411755e-001 7.83521095e-003 -3.70112985e-002 2.07993842e-001 1.03057827e-002 1.81292027e-001 5.25924842e-002 2.65874934e-001 1.03727480e-002 5.81792851e-002 2.64750525e-001 1.41337982e-001 8.30862200e-002 2.80341849e-002 1.47689037e-001 -3.92983417e-002 3.40288553e-002 -1.96506386e-001 7.03196103e-003 1.10207250e-002 7.69145309e-002 -1.61228583e-001 7.80989378e-002 1.74071752e-001
 -1.09829816e-001 -1.68898700e-001 6.53629774e-002 -5.82181120e-002 -1.26706182e-001 -6.34303935e-004 2.45765787e-001 -3.20137620e-002 5.93606472e-002 -1.85277078e-001 -4.41390448e-002 4.32665727e-001 -4.85327264e-002 -9.23547844e-003 -1.09596905e-001 -3.48381434e-001 1.84583635e-001 -6.88899550e-001 1.03442661e-001 -1.22361709e-002 3.09090695e-002 2.52309398e-001 -2.84027072e-002 -2.82630891e-002 1.03096858e-001 -9.38444994e-003 8.20147790e-002 -2.27358578e-001 -7.74995031e-002 3.38440655e-002 -2.95871753e-002 -4.28978916e-002 -1.72809210e-001 -2.26023753e-001 -1.13198414e-001 -6.64533546e-002 -1.84156464e-002 -9.86039874e-002 -2.72081233e-002 7.41100061e-002 7.81254382e-002 -3.41065849e-001 -2.31090551e-002 -4.60027647e-002 1.92040985e-001 -6.74898494e-002 -3.33499393e-003 -1.62479393e-001 9.22358423e-002 -7.61228565e-002 -1.79072739e-001
